svm_type c_svc
kernel_type rbf
gamma 0.16666666666666666
nr_class 2
total_sv 56
rho 0.3994243150824792
label 1 0
nr_sv 17 39
SV
1.0 1:0.0 2:0.0 3:0.0 4:0.0 5:1.0 6:1.0 
0.9415608127090614 1:5.8938375 2:4.0 3:9.0 4:1.0 5:1.0 6:1.0 
1.0 1:14.3447895 2:1.0 3:1.0 4:0.0 5:1.0 6:1.0 
1.0 1:6.517524 2:2.0 3:2.0 4:0.0 5:1.0 6:1.0 
1.0 1:8.139109 2:7.0 3:2.0 4:1.0 5:1.0 6:1.0 
1.0 1:0.18710594 2:0.0 3:3.0 4:1.0 5:0.0 6:0.0 
1.0 1:0.0 2:0.0 3:0.0 4:0.0 5:1.0 6:1.0 
1.0 1:341.3748 2:14.0 3:12.0 4:1.0 5:1.0 6:1.0 
1.0 1:0.0 2:0.0 3:0.0 4:1.0 5:1.0 6:1.0 
1.0 1:9.355297 2:0.0 3:0.0 4:1.0 5:0.0 6:0.0 
1.0 1:1.8710594 2:17.0 3:6.0 4:1.0 5:1.0 6:0.0 
1.0 1:15.950782 2:0.0 3:1.0 4:1.0 5:1.0 6:0.0 
1.0 1:0.15592162 2:0.0 3:4.0 4:1.0 5:1.0 6:0.0 
1.0 1:0.38980407 2:7.0 3:2.0 4:0.0 5:1.0 6:1.0 
0.941429733117129 1:5.488441 2:4.0 3:7.0 4:1.0 5:1.0 6:1.0 
1.0 1:46.02806 2:0.0 3:0.0 4:1.0 5:1.0 6:1.0 
1.0 1:35.082363 2:8.0 3:9.0 4:1.0 5:1.0 6:1.0 
-0.8738247768380286 1:10.134906 2:0.0 3:1.0 4:0.0 5:0.0 6:0.0 
-0.33314377054678745 1:8.185885 2:0.0 3:0.0 4:0.0 5:0.0 6:0.0 
-0.5999553249785603 1:27.504574 2:0.0 3:1.0 4:1.0 5:1.0 6:1.0 
-0.7032668681575583 1:9.23056 2:2.0 3:0.0 4:1.0 5:0.0 6:0.0 
-0.6011238089339777 1:7.8584495 2:19.0 3:4.0 4:1.0 5:1.0 6:1.0 
-1.0 1:17.026642 2:0.0 3:0.0 4:0.0 5:0.0 6:0.0 
-0.6006111483604801 1:31.21551 2:4.0 3:5.0 4:0.0 5:0.0 6:0.0 
-0.15725069211745946 1:0.8575689 2:8.0 3:1.0 4:0.0 5:1.0 6:1.0 
-0.4953877255792296 1:0.0 2:1.0 3:14.0 4:0.0 5:1.0 6:1.0 
-0.09136937041228986 1:0.0 2:0.0 3:0.0 4:0.0 5:1.0 6:1.0 
-1.0 1:0.0 2:0.0 3:0.0 4:0.0 5:1.0 6:1.0 
-0.9240798118337893 1:0.0 2:0.0 3:0.0 4:1.0 5:1.0 6:1.0 
-0.3655635281851976 1:7.016473 2:0.0 3:0.0 4:1.0 5:0.0 6:0.0 
-0.9403132824828572 1:0.0 2:0.0 3:2.0 4:1.0 5:0.0 6:0.0 
-1.0 1:0.0 2:0.0 3:0.0 4:0.0 5:1.0 6:1.0 
-0.2741057345396684 1:0.0 2:0.0 3:3.0 4:0.0 5:1.0 6:0.0 
-0.6732348576332476 1:0.015592162 2:0.0 3:4.0 4:0.0 5:0.0 6:0.0 
-0.14058100628732398 1:0.3274354 2:2.0 3:2.0 4:1.0 5:1.0 6:0.0 
-0.353761851020636 1:0.015592162 2:1.0 3:5.0 4:0.0 5:0.0 6:0.0 
-0.1622543189750731 1:1.3097416 2:0.0 3:0.0 4:0.0 5:0.0 6:0.0 
-0.5869406129844186 1:5.8314686 2:0.0 3:0.0 4:0.0 5:1.0 6:1.0 
-0.1768859062653539 1:0.9355297 2:0.0 3:0.0 4:1.0 5:1.0 6:1.0 
-0.14539639229782922 1:0.015592162 2:4.0 3:1.0 4:0.0 5:1.0 6:1.0 
-0.39858747244961784 1:0.015592162 2:10.0 3:3.0 4:0.0 5:0.0 6:0.0 
-0.03168158931949272 1:0.6548708 2:3.0 3:1.0 4:0.0 5:1.0 6:0.0 
-0.3742165155765947 1:0.9355297 2:7.0 3:2.0 4:0.0 5:1.0 6:1.0 
-0.18484869006395635 1:0.031184323 2:4.0 3:2.0 4:1.0 5:1.0 6:1.0 
-0.35420626109118697 1:0.8731611 2:6.0 3:1.0 4:0.0 5:1.0 6:1.0 
-0.2435068340779068 1:0.015592162 2:9.0 3:1.0 4:0.0 5:0.0 6:1.0 
-0.45750823963473775 1:0.015592162 2:7.0 3:3.0 4:1.0 5:1.0 6:1.0 
-0.4805936444640649 1:0.6860551 2:4.0 3:11.0 4:0.0 5:0.0 6:0.0 
-0.13731464344407268 1:0.21829027 2:8.0 3:1.0 4:0.0 5:1.0 6:0.0 
-0.2957180539163811 1:0.5145413 2:7.0 3:3.0 4:0.0 5:0.0 6:0.0 
-0.14923209660022535 1:0.046776485 2:7.0 3:1.0 4:1.0 5:1.0 6:1.0 
-0.09843785787192413 1:0.07796081 2:2.0 3:0.0 4:1.0 5:1.0 6:1.0 
-0.0887086970546784 1:0.21829027 2:2.0 3:0.0 4:1.0 5:0.0 6:0.0 
-0.5667916827015067 1:1.6839535 2:2.0 3:8.0 4:0.0 5:1.0 6:1.0 
-0.6045593029758929 1:0.046776485 2:0.0 3:4.0 4:0.0 5:1.0 6:1.0 
-0.21802817615418482 1:0.6236865 2:2.0 3:12.0 4:0.0 5:1.0 6:1.0 
