svm_type c_svc
kernel_type rbf
gamma 0.16666666666666666
nr_class 2
total_sv 39
rho -0.00141996331173277
label 1 0
nr_sv 17 22
SV
1.0 1:0.0 4:0.0 5:1.0 6:1.0 
1.0 1:5.8938375 4:1.0 5:1.0 6:1.0 
0.7775162638847969 1:14.3447895 4:0.0 5:1.0 6:1.0 
1.0 1:6.517524 4:0.0 5:1.0 6:1.0 
1.0 1:8.139109 4:1.0 5:1.0 6:1.0 
1.0 1:0.18710594 4:1.0 5:0.0 6:0.0 
1.0 1:0.0 4:0.0 5:1.0 6:1.0 
0.9989608660090683 1:341.3748 4:1.0 5:1.0 6:1.0 
1.0 1:0.0 4:1.0 5:1.0 6:1.0 
1.0 1:9.355297 4:1.0 5:0.0 6:0.0 
1.0 1:1.8710594 4:1.0 5:1.0 6:0.0 
1.0 1:15.950782 4:1.0 5:1.0 6:0.0 
1.0 1:0.15592162 4:1.0 5:1.0 6:0.0 
1.0 1:0.38980407 4:0.0 5:1.0 6:1.0 
0.8344230254754841 1:5.488441 4:1.0 5:1.0 6:1.0 
0.9980273211232054 1:46.02806 4:1.0 5:1.0 6:1.0 
1.0 1:35.082363 4:1.0 5:1.0 6:1.0 
-0.8373536630952229 1:10.134906 4:0.0 5:0.0 6:0.0 
-0.48291271251260687 1:8.185885 4:0.0 5:0.0 6:0.0 
-0.9405679087450579 1:27.504574 4:1.0 5:1.0 6:1.0 
-0.9280728283591956 1:9.23056 4:1.0 5:0.0 6:0.0 
-1.0 1:7.8584495 4:1.0 5:1.0 6:1.0 
-1.0 1:17.026642 4:0.0 5:0.0 6:0.0 
-0.9937000874066053 1:31.21551 4:0.0 5:0.0 6:0.0 
-0.16482043537355112 1:0.0 4:1.0 5:1.0 6:1.0 
-0.6603779853434688 1:0.0 4:0.0 5:1.0 6:1.0 
-0.736603912027859 1:0.0 4:1.0 5:1.0 6:1.0 
-1.0 1:7.016473 4:1.0 5:0.0 6:0.0 
-1.0 1:0.0 4:0.0 5:1.0 6:1.0 
-0.8393438200691977 1:0.0 4:0.0 5:1.0 6:1.0 
-0.12426539604791631 1:0.0 4:1.0 5:0.0 6:0.0 
-0.9773197589015915 1:0.0 4:1.0 5:0.0 6:0.0 
-0.6625362544430956 1:0.3274354 4:1.0 5:1.0 6:0.0 
-1.0 1:0.062368646 4:1.0 5:1.0 6:0.0 
-0.06130570587919908 1:0.0 4:0.0 5:0.0 6:1.0 
-0.6325979364261123 1:1.3097416 4:0.0 5:0.0 6:0.0 
-1.0 1:5.8314686 4:0.0 5:1.0 6:1.0 
-0.5671490718618742 1:0.9355297 4:1.0 5:1.0 6:1.0 
-1.0 1:1.6839535 4:0.0 5:1.0 6:1.0 
